<?xml version="1.0"?>
<opencv_storage>
<cascade>
  <stageType>BOOST</stageType>
  <featureType>HAAR</featureType>
  <height>20</height>
  <width>20</width>
  <stageParams>
    <boostType>GAB</boostType>
    <minHitRate>9.9500000476837158e-01</minHitRate>
    <maxFalseAlarm>5.0000000000000000e-01</maxFalseAlarm>
    <weightTrimRate>9.4999999999999996e-01</weightTrimRate>
    <maxDepth>1</maxDepth>
    <maxWeakCount>100</maxWeakCount></stageParams>
  <featureParams>
    <maxCatCount>0</maxCatCount>
    <featSize>1</featSize>
    <mode>BASIC</mode></featureParams>
  <stageNum>9</stageNum>
  <stages>
    <!-- stage 0 -->
    <_>
      <maxWeakCount>3</maxWeakCount>
      <stageThreshold>-9.3878692388534546e-01</stageThreshold>
      <weakClassifiers>
        <_>
          <internalNodes>
            0 -1 26 6.9133102893829346e-02</internalNodes>
          <leafValues>
            -8.7087088823318481e-01 8.1675708293914795e-01</leafValues></_>
        <_>
          <internalNodes>
            0 -1 24 -2.6725580915808678e-02</internalNodes>
          <leafValues>
            7.8621590137481689e-01 -6.8668836355209351e-01</leafValues></_>
        <_>
          <internalNodes>
            0 -1 17 1.9581831991672516e-02</internalNodes>
          <leafValues>
            -8.1819695234298706e-01 6.1877232789993286e-01</leafValues></_></weakClassifiers></_>
    <!-- stage 1 -->
    <_>
      <maxWeakCount>4</maxWeakCount>
      <stageThreshold>-3.6535009741783142e-01</stageThreshold>
      <weakClassifiers>
        <_>
          <internalNodes>
            0 -1 34 6.3712805509567261e-02</internalNodes>
          <leafValues>
            -6.9316595792770386e-01 7.9104477167129517e-01</leafValues></_>
        <_>
          <internalNodes>
            0 -1 35 2.5784974917769432e-02</internalNodes>
          <leafValues>
            -6.0191482305526733e-01 8.0348724126815796e-01</leafValues></_>
        <_>
          <internalNodes>
            0 -1 10 3.4744162112474442e-02</internalNodes>
          <leafValues>
            -8.0290985107421875e-01 5.7317221164703369e-01</leafValues></_>
        <_>
          <internalNodes>
            0 -1 51 2.9167877510190010e-03</internalNodes>
          <leafValues>
            -9.3760973215103149e-01 3.5655853152275085e-01</leafValues></_></weakClassifiers></_>
    <!-- stage 2 -->
    <_>
      <maxWeakCount>6</maxWeakCount>
      <stageThreshold>-9.8461556434631348e-01</stageThreshold>
      <weakClassifiers>
        <_>
          <internalNodes>
            0 -1 27 -6.1987759545445442e-03</internalNodes>
          <leafValues>
            7.4694377183914185e-01 -6.4876633882522583e-01</leafValues></_>
        <_>
          <internalNodes>
            0 -1 40 2.2210480645298958e-02</internalNodes>
          <leafValues>
            -6.9548517465591431e-01 6.6468113660812378e-01</leafValues></_>
        <_>
          <internalNodes>
            0 -1 19 4.4454513117671013e-03</internalNodes>
          <leafValues>
            -6.7748272418975830e-01 5.4393720626831055e-01</leafValues></_>
        <_>
          <internalNodes>
            0 -1 38 -5.0400001928210258e-03</internalNodes>
          <leafValues>
            5.9940218925476074e-01 -5.4354697465896606e-01</leafValues></_>
        <_>
          <internalNodes>
            0 -1 8 2.1994322538375854e-02</internalNodes>
          <leafValues>
            -3.7513998150825500e-01 7.3762440681457520e-01</leafValues></_>
        <_>
          <internalNodes>
            0 -1 2 7.1200025267899036e-03</internalNodes>
          <leafValues>
            -3.7837874889373779e-01 8.0044597387313843e-01</leafValues></_></weakClassifiers></_>
    <!-- stage 3 -->
    <_>
      <maxWeakCount>6</maxWeakCount>
      <stageThreshold>-1.3497633934020996e+00</stageThreshold>
      <weakClassifiers>
        <_>
          <internalNodes>
            0 -1 47 7.1386963129043579e-02</internalNodes>
          <leafValues>
            -6.2750715017318726e-01 7.4554395675659180e-01</leafValues></_>
        <_>
          <internalNodes>
            0 -1 15 -4.8256773501634598e-02</internalNodes>
          <leafValues>
            6.8876808881759644e-01 -4.6535596251487732e-01</leafValues></_>
        <_>
          <internalNodes>
            0 -1 44 1.8835410475730896e-02</internalNodes>
          <leafValues>
            -7.3374783992767334e-01 4.5931047201156616e-01</leafValues></_>
        <_>
          <internalNodes>
            0 -1 14 1.1027846485376358e-01</internalNodes>
          <leafValues>
            -8.0106592178344727e-01 3.7480750679969788e-01</leafValues></_>
        <_>
          <internalNodes>
            0 -1 4 1.8375910818576813e-02</internalNodes>
          <leafValues>
            -6.6387230157852173e-01 3.6525937914848328e-01</leafValues></_>
        <_>
          <internalNodes>
            0 -1 5 2.9108384624123573e-02</internalNodes>
          <leafValues>
            -3.8821175694465637e-01 5.7658600807189941e-01</leafValues></_></weakClassifiers></_>
    <!-- stage 4 -->
    <_>
      <maxWeakCount>6</maxWeakCount>
      <stageThreshold>-1.3461928367614746e+00</stageThreshold>
      <weakClassifiers>
        <_>
          <internalNodes>
            0 -1 36 -5.8442067354917526e-02</internalNodes>
          <leafValues>
            7.1536523103713989e-01 -4.8982360959053040e-01</leafValues></_>
        <_>
          <internalNodes>
            0 -1 25 -1.4177201315760612e-02</internalNodes>
          <leafValues>
            5.9150940179824829e-01 -5.1437264680862427e-01</leafValues></_>
        <_>
          <internalNodes>
            0 -1 16 7.8628048300743103e-02</internalNodes>
          <leafValues>
            -6.2696492671966553e-01 4.4841024279594421e-01</leafValues></_>
        <_>
          <internalNodes>
            0 -1 45 6.8153631873428822e-03</internalNodes>
          <leafValues>
            -7.8050565719604492e-01 2.9499673843383789e-01</leafValues></_>
        <_>
          <internalNodes>
            0 -1 33 2.5428044609725475e-03</internalNodes>
          <leafValues>
            -8.2841837406158447e-01 2.4671505391597748e-01</leafValues></_>
        <_>
          <internalNodes>
            0 -1 28 2.4087551981210709e-02</internalNodes>
          <leafValues>
            -3.8679888844490051e-01 6.2553244829177856e-01</leafValues></_></weakClassifiers></_>
    <!-- stage 5 -->
    <_>
      <maxWeakCount>6</maxWeakCount>
      <stageThreshold>-1.1912877559661865e+00</stageThreshold>
      <weakClassifiers>
        <_>
          <internalNodes>
            0 -1 42 1.7576651647686958e-02</internalNodes>
          <leafValues>
            -8.0952382087707520e-01 6.0084927082061768e-01</leafValues></_>
        <_>
          <internalNodes>
            0 -1 6 1.3017340563237667e-02</internalNodes>
          <leafValues>
            -5.6603902578353882e-01 5.4129636287689209e-01</leafValues></_>
        <_>
          <internalNodes>
            0 -1 35 3.7552345544099808e-02</internalNodes>
          <leafValues>
            -4.5045354962348938e-01 5.8889031410217285e-01</leafValues></_>
        <_>
          <internalNodes>
            0 -1 0 5.9880316257476807e-03</internalNodes>
          <leafValues>
            -4.0898981690406799e-01 6.9441890716552734e-01</leafValues></_>
        <_>
          <internalNodes>
            0 -1 18 3.2125093042850494e-02</internalNodes>
          <leafValues>
            -7.7518677711486816e-01 3.0975210666656494e-01</leafValues></_>
        <_>
          <internalNodes>
            0 -1 21 3.9404118433594704e-03</internalNodes>
          <leafValues>
            -6.3081169128417969e-01 3.1463816761970520e-01</leafValues></_></weakClassifiers></_>
    <!-- stage 6 -->
    <_>
      <maxWeakCount>8</maxWeakCount>
      <stageThreshold>-1.0158408880233765e+00</stageThreshold>
      <weakClassifiers>
        <_>
          <internalNodes>
            0 -1 32 2.9508438892662525e-03</internalNodes>
          <leafValues>
            -5.7531762123107910e-01 6.1555808782577515e-01</leafValues></_>
        <_>
          <internalNodes>
            0 -1 41 8.1942513585090637e-02</internalNodes>
          <leafValues>
            -5.4310142993927002e-01 5.6456810235977173e-01</leafValues></_>
        <_>
          <internalNodes>
            0 -1 52 9.3986298888921738e-03</internalNodes>
          <leafValues>
            -5.4929804801940918e-01 3.7521457672119141e-01</leafValues></_>
        <_>
          <internalNodes>
            0 -1 23 5.7455552741885185e-03</internalNodes>
          <leafValues>
            -7.4533736705780029e-01 2.8867587447166443e-01</leafValues></_>
        <_>
          <internalNodes>
            0 -1 37 1.2479145079851151e-02</internalNodes>
          <leafValues>
            -5.9549188613891602e-01 3.3321559429168701e-01</leafValues></_>
        <_>
          <internalNodes>
            0 -1 9 2.7469784021377563e-02</internalNodes>
          <leafValues>
            -7.2995108366012573e-01 2.5157901644706726e-01</leafValues></_>
        <_>
          <internalNodes>
            0 -1 29 -6.6523998975753784e-03</internalNodes>
          <leafValues>
            4.3807971477508545e-01 -4.1507971286773682e-01</leafValues></_>
        <_>
          <internalNodes>
            0 -1 22 -8.9303413406014442e-03</internalNodes>
          <leafValues>
            -7.9104912281036377e-01 1.9768029451370239e-01</leafValues></_></weakClassifiers></_>
    <!-- stage 7 -->
    <_>
      <maxWeakCount>7</maxWeakCount>
      <stageThreshold>-7.9354870319366455e-01</stageThreshold>
      <weakClassifiers>
        <_>
          <internalNodes>
            0 -1 46 8.7970606982707977e-02</internalNodes>
          <leafValues>
            -3.4767025709152222e-01 7.1639782190322876e-01</leafValues></_>
        <_>
          <internalNodes>
            0 -1 12 -1.5739528462290764e-02</internalNodes>
          <leafValues>
            5.3373795747756958e-01 -4.3418857455253601e-01</leafValues></_>
        <_>
          <internalNodes>
            0 -1 20 6.2679154798388481e-03</internalNodes>
          <leafValues>
            -6.4441287517547607e-01 3.4606233239173889e-01</leafValues></_>
        <_>
          <internalNodes>
            0 -1 49 5.0824456848204136e-03</internalNodes>
          <leafValues>
            -3.9311203360557556e-01 5.3715783357620239e-01</leafValues></_>
        <_>
          <internalNodes>
            0 -1 11 8.0059450119733810e-03</internalNodes>
          <leafValues>
            -7.9579663276672363e-01 2.4612683057785034e-01</leafValues></_>
        <_>
          <internalNodes>
            0 -1 31 1.0893580038100481e-03</internalNodes>
          <leafValues>
            -4.3345296382904053e-01 4.5027443766593933e-01</leafValues></_>
        <_>
          <internalNodes>
            0 -1 43 5.6515581673011184e-04</internalNodes>
          <leafValues>
            -6.2185782194137573e-01 3.0728915333747864e-01</leafValues></_></weakClassifiers></_>
    <!-- stage 8 -->
    <_>
      <maxWeakCount>9</maxWeakCount>
      <stageThreshold>-9.3934351205825806e-01</stageThreshold>
      <weakClassifiers>
        <_>
          <internalNodes>
            0 -1 48 -1.7927642911672592e-02</internalNodes>
          <leafValues>
            6.3046044111251831e-01 -4.6434232592582703e-01</leafValues></_>
        <_>
          <internalNodes>
            0 -1 13 2.2601038217544556e-02</internalNodes>
          <leafValues>
            -7.8259074687957764e-01 3.3368068933486938e-01</leafValues></_>
        <_>
          <internalNodes>
            0 -1 53 -1.6846654936671257e-02</internalNodes>
          <leafValues>
            6.1105829477310181e-01 -3.0461904406547546e-01</leafValues></_>
        <_>
          <internalNodes>
            0 -1 7 2.9372390359640121e-02</internalNodes>
          <leafValues>
            -3.4898367524147034e-01 5.1927053928375244e-01</leafValues></_>
        <_>
          <internalNodes>
            0 -1 1 5.3992271423339844e-03</internalNodes>
          <leafValues>
            -3.2092863321304321e-01 5.8586424589157104e-01</leafValues></_>
        <_>
          <internalNodes>
            0 -1 50 4.4634146615862846e-03</internalNodes>
          <leafValues>
            -6.4002513885498047e-01 3.2543033361434937e-01</leafValues></_>
        <_>
          <internalNodes>
            0 -1 39 4.9234726466238499e-03</internalNodes>
          <leafValues>
            -5.6258386373519897e-01 2.8604969382286072e-01</leafValues></_>
        <_>
          <internalNodes>
            0 -1 30 6.3433155417442322e-02</internalNodes>
          <leafValues>
            -8.9726483821868896e-01 2.1588593721389771e-01</leafValues></_>
        <_>
          <internalNodes>
            0 -1 3 3.4984640777111053e-02</internalNodes>
          <leafValues>
            -4.6092239022254944e-01 3.5683235526084900e-01</leafValues></_></weakClassifiers></_></stages>
  <features>
    <_>
      <rects>
        <_>
          0 3 2 6 -1.</_>
        <_>
          1 3 1 6 2.</_></rects>
      <tilted>0</tilted></_>
    <_>
      <rects>
        <_>
          0 5 2 3 -1.</_>
        <_>
          1 5 1 3 2.</_></rects>
      <tilted>0</tilted></_>
    <_>
      <rects>
        <_>
          0 5 2 4 -1.</_>
        <_>
          1 5 1 4 2.</_></rects>
      <tilted>0</tilted></_>
    <_>
      <rects>
        <_>
          0 14 10 4 -1.</_>
        <_>
          5 14 5 4 2.</_></rects>
      <tilted>0</tilted></_>
    <_>
      <rects>
        <_>
          0 15 14 2 -1.</_>
        <_>
          7 15 7 2 2.</_></rects>
      <tilted>0</tilted></_>
    <_>
      <rects>
        <_>
          1 0 12 4 -1.</_>
        <_>
          1 2 12 2 2.</_></rects>
      <tilted>0</tilted></_>
    <_>
      <rects>
        <_>
          1 13 6 5 -1.</_>
        <_>
          4 13 3 5 2.</_></rects>
      <tilted>0</tilted></_>
    <_>
      <rects>
        <_>
          2 0 9 6 -1.</_>
        <_>
          2 2 9 2 3.</_></rects>
      <tilted>0</tilted></_>
    <_>
      <rects>
        <_>
          3 0 5 6 -1.</_>
        <_>
          3 2 5 2 3.</_></rects>
      <tilted>0</tilted></_>
    <_>
      <rects>
        <_>
          3 6 12 3 -1.</_>
        <_>
          9 6 6 3 2.</_></rects>
      <tilted>0</tilted></_>
    <_>
      <rects>
        <_>
          3 6 14 3 -1.</_>
        <_>
          10 6 7 3 2.</_></rects>
      <tilted>0</tilted></_>
    <_>
      <rects>
        <_>
          3 14 14 2 -1.</_>
        <_>
          10 14 7 2 2.</_></rects>
      <tilted>0</tilted></_>
    <_>
      <rects>
        <_>
          3 17 12 2 -1.</_>
        <_>
          3 18 12 1 2.</_></rects>
      <tilted>0</tilted></_>
    <_>
      <rects>
        <_>
          4 3 15 5 -1.</_>
        <_>
          9 3 5 5 3.</_></rects>
      <tilted>0</tilted></_>
    <_>
      <rects>
        <_>
          4 6 14 8 -1.</_>
        <_>
          11 6 7 8 2.</_></rects>
      <tilted>0</tilted></_>
    <_>
      <rects>
        <_>
          4 16 13 4 -1.</_>
        <_>
          4 18 13 2 2.</_></rects>
      <tilted>0</tilted></_>
    <_>
      <rects>
        <_>
          5 2 14 10 -1.</_>
        <_>
          5 2 7 5 2.</_>
        <_>
          12 7 7 5 2.</_></rects>
      <tilted>0</tilted></_>
    <_>
      <rects>
        <_>
          5 6 15 2 -1.</_>
        <_>
          10 6 5 2 3.</_></rects>
      <tilted>0</tilted></_>
    <_>
      <rects>
        <_>
          5 6 15 3 -1.</_>
        <_>
          10 6 5 3 3.</_></rects>
      <tilted>0</tilted></_>
    <_>
      <rects>
        <_>
          5 9 2 6 -1.</_>
        <_>
          5 12 2 3 2.</_></rects>
      <tilted>0</tilted></_>
    <_>
      <rects>
        <_>
          5 9 3 6 -1.</_>
        <_>
          5 12 3 3 2.</_></rects>
      <tilted>0</tilted></_>
    <_>
      <rects>
        <_>
          5 13 6 4 -1.</_>
        <_>
          5 13 3 2 2.</_>
        <_>
          8 15 3 2 2.</_></rects>
      <tilted>0</tilted></_>
    <_>
      <rects>
        <_>
          5 15 6 3 -1.</_>
        <_>
          7 15 2 3 3.</_></rects>
      <tilted>0</tilted></_>
    <_>
      <rects>
        <_>
          5 15 10 2 -1.</_>
        <_>
          10 15 5 2 2.</_></rects>
      <tilted>0</tilted></_>
    <_>
      <rects>
        <_>
          5 16 11 4 -1.</_>
        <_>
          5 18 11 2 2.</_></rects>
      <tilted>0</tilted></_>
    <_>
      <rects>
        <_>
          5 17 13 2 -1.</_>
        <_>
          5 18 13 1 2.</_></rects>
      <tilted>0</tilted></_>
    <_>
      <rects>
        <_>
          6 7 12 7 -1.</_>
        <_>
          12 7 6 7 2.</_></rects>
      <tilted>0</tilted></_>
    <_>
      <rects>
        <_>
          6 17 9 2 -1.</_>
        <_>
          6 18 9 1 2.</_></rects>
      <tilted>0</tilted></_>
    <_>
      <rects>
        <_>
          7 0 7 4 -1.</_>
        <_>
          7 2 7 2 2.</_></rects>
      <tilted>0</tilted></_>
    <_>
      <rects>
        <_>
          7 5 2 6 -1.</_>
        <_>
          7 7 2 2 3.</_></rects>
      <tilted>0</tilted></_>
    <_>
      <rects>
        <_>
          7 7 10 9 -1.</_>
        <_>
          12 7 5 9 2.</_></rects>
      <tilted>0</tilted></_>
    <_>
      <rects>
        <_>
          7 10 2 1 -1.</_>
        <_>
          8 10 1 1 2.</_></rects>
      <tilted>0</tilted></_>
    <_>
      <rects>
        <_>
          7 11 1 9 -1.</_>
        <_>
          7 14 1 3 3.</_></rects>
      <tilted>0</tilted></_>
    <_>
      <rects>
        <_>
          7 14 8 2 -1.</_>
        <_>
          11 14 4 2 2.</_></rects>
      <tilted>0</tilted></_>
    <_>
      <rects>
        <_>
          8 2 10 12 -1.</_>
        <_>
          8 2 5 6 2.</_>
        <_>
          13 8 5 6 2.</_></rects>
      <tilted>0</tilted></_>
    <_>
      <rects>
        <_>
          8 13 5 6 -1.</_>
        <_>
          8 15 5 2 3.</_></rects>
      <tilted>0</tilted></_>
    <_>
      <rects>
        <_>
          9 9 10 10 -1.</_>
        <_>
          9 9 5 5 2.</_>
        <_>
          14 14 5 5 2.</_></rects>
      <tilted>0</tilted></_>
    <_>
      <rects>
        <_>
          9 13 2 6 -1.</_>
        <_>
          9 15 2 2 3.</_></rects>
      <tilted>0</tilted></_>
    <_>
      <rects>
        <_>
          9 14 8 2 -1.</_>
        <_>
          9 14 4 1 2.</_>
        <_>
          13 15 4 1 2.</_></rects>
      <tilted>0</tilted></_>
    <_>
      <rects>
        <_>
          9 15 4 3 -1.</_>
        <_>
          9 16 4 1 3.</_></rects>
      <tilted>0</tilted></_>
    <_>
      <rects>
        <_>
          10 2 4 9 -1.</_>
        <_>
          10 5 4 3 3.</_></rects>
      <tilted>0</tilted></_>
    <_>
      <rects>
        <_>
          10 2 8 12 -1.</_>
        <_>
          10 2 4 6 2.</_>
        <_>
          14 8 4 6 2.</_></rects>
      <tilted>0</tilted></_>
    <_>
      <rects>
        <_>
          10 12 9 4 -1.</_>
        <_>
          13 12 3 4 3.</_></rects>
      <tilted>0</tilted></_>
    <_>
      <rects>
        <_>
          10 15 1 3 -1.</_>
        <_>
          10 16 1 1 3.</_></rects>
      <tilted>0</tilted></_>
    <_>
      <rects>
        <_>
          11 1 3 12 -1.</_>
        <_>
          11 5 3 4 3.</_></rects>
      <tilted>0</tilted></_>
    <_>
      <rects>
        <_>
          11 2 3 6 -1.</_>
        <_>
          11 5 3 3 2.</_></rects>
      <tilted>0</tilted></_>
    <_>
      <rects>
        <_>
          11 7 9 7 -1.</_>
        <_>
          14 7 3 7 3.</_></rects>
      <tilted>0</tilted></_>
    <_>
      <rects>
        <_>
          11 7 9 9 -1.</_>
        <_>
          14 7 3 9 3.</_></rects>
      <tilted>0</tilted></_>
    <_>
      <rects>
        <_>
          12 9 4 10 -1.</_>
        <_>
          12 9 2 5 2.</_>
        <_>
          14 14 2 5 2.</_></rects>
      <tilted>0</tilted></_>
    <_>
      <rects>
        <_>
          13 3 4 2 -1.</_>
        <_>
          13 4 4 1 2.</_></rects>
      <tilted>0</tilted></_>
    <_>
      <rects>
        <_>
          13 9 4 9 -1.</_>
        <_>
          13 12 4 3 3.</_></rects>
      <tilted>0</tilted></_>
    <_>
      <rects>
        <_>
          14 3 2 12 -1.</_>
        <_>
          14 9 2 6 2.</_></rects>
      <tilted>0</tilted></_>
    <_>
      <rects>
        <_>
          14 5 6 8 -1.</_>
        <_>
          16 5 2 8 3.</_></rects>
      <tilted>0</tilted></_>
    <_>
      <rects>
        <_>
          18 7 2 9 -1.</_>
        <_>
          19 7 1 9 2.</_></rects>
      <tilted>0</tilted></_></features></cascade>
</opencv_storage>
