<?xml version="1.0"?>
<opencv_storage>
<cascade>
  <stageType>BOOST</stageType>
  <featureType>HAAR</featureType>
  <height>20</height>
  <width>20</width>
  <stageParams>
    <boostType>GAB</boostType>
    <minHitRate>9.9500000476837158e-01</minHitRate>
    <maxFalseAlarm>5.0000000000000000e-01</maxFalseAlarm>
    <weightTrimRate>9.4999999999999996e-01</weightTrimRate>
    <maxDepth>1</maxDepth>
    <maxWeakCount>100</maxWeakCount></stageParams>
  <featureParams>
    <maxCatCount>0</maxCatCount>
    <featSize>1</featSize>
    <mode>BASIC</mode></featureParams>
  <stageNum>8</stageNum>
  <stages>
    <!-- stage 0 -->
    <_>
      <maxWeakCount>3</maxWeakCount>
      <stageThreshold>-7.6603627204895020e-01</stageThreshold>
      <weakClassifiers>
        <_>
          <internalNodes>
            0 -1 21 6.9133102893829346e-02</internalNodes>
          <leafValues>
            -8.7605631351470947e-01 8.1983000040054321e-01</leafValues></_>
        <_>
          <internalNodes>
            0 -1 19 -2.6744989678263664e-02</internalNodes>
          <leafValues>
            7.8734302520751953e-01 -6.8841123580932617e-01</leafValues></_>
        <_>
          <internalNodes>
            0 -1 42 5.9063591063022614e-02</internalNodes>
          <leafValues>
            -5.9950453042984009e-01 7.9843127727508545e-01</leafValues></_></weakClassifiers></_>
    <!-- stage 1 -->
    <_>
      <maxWeakCount>5</maxWeakCount>
      <stageThreshold>-5.8028817176818848e-01</stageThreshold>
      <weakClassifiers>
        <_>
          <internalNodes>
            0 -1 27 6.2032260000705719e-02</internalNodes>
          <leafValues>
            -7.1939474344253540e-01 7.7116703987121582e-01</leafValues></_>
        <_>
          <internalNodes>
            0 -1 30 3.2794658094644547e-02</internalNodes>
          <leafValues>
            -5.7395243644714355e-01 8.1821137666702271e-01</leafValues></_>
        <_>
          <internalNodes>
            0 -1 10 1.3556874357163906e-02</internalNodes>
          <leafValues>
            -7.9396706819534302e-01 5.9108555316925049e-01</leafValues></_>
        <_>
          <internalNodes>
            0 -1 1 2.7736475691199303e-02</internalNodes>
          <leafValues>
            -4.3581411242485046e-01 7.4357652664184570e-01</leafValues></_>
        <_>
          <internalNodes>
            0 -1 8 -5.6231655180454254e-03</internalNodes>
          <leafValues>
            5.5778759717941284e-01 -5.2263033390045166e-01</leafValues></_></weakClassifiers></_>
    <!-- stage 2 -->
    <_>
      <maxWeakCount>5</maxWeakCount>
      <stageThreshold>-1.0673840045928955e+00</stageThreshold>
      <weakClassifiers>
        <_>
          <internalNodes>
            0 -1 37 2.4976707994937897e-02</internalNodes>
          <leafValues>
            -6.7543858289718628e-01 7.1859294176101685e-01</leafValues></_>
        <_>
          <internalNodes>
            0 -1 36 1.4643775299191475e-02</internalNodes>
          <leafValues>
            -8.4697085618972778e-01 5.0921744108200073e-01</leafValues></_>
        <_>
          <internalNodes>
            0 -1 16 4.6574831008911133e-02</internalNodes>
          <leafValues>
            -6.7219942808151245e-01 5.2372044324874878e-01</leafValues></_>
        <_>
          <internalNodes>
            0 -1 46 5.7016074657440186e-02</internalNodes>
          <leafValues>
            -7.9150509834289551e-01 3.8181367516517639e-01</leafValues></_>
        <_>
          <internalNodes>
            0 -1 20 -5.6465215981006622e-02</internalNodes>
          <leafValues>
            5.6254166364669800e-01 -4.6418717503547668e-01</leafValues></_></weakClassifiers></_>
    <!-- stage 3 -->
    <_>
      <maxWeakCount>6</maxWeakCount>
      <stageThreshold>-7.4645215272903442e-01</stageThreshold>
      <weakClassifiers>
        <_>
          <internalNodes>
            0 -1 32 -5.4940916597843170e-02</internalNodes>
          <leafValues>
            6.9700461626052856e-01 -5.2097427845001221e-01</leafValues></_>
        <_>
          <internalNodes>
            0 -1 13 2.9835063964128494e-02</internalNodes>
          <leafValues>
            -6.1319637298583984e-01 4.9883392453193665e-01</leafValues></_>
        <_>
          <internalNodes>
            0 -1 23 -3.7717524915933609e-02</internalNodes>
          <leafValues>
            5.8575427532196045e-01 -5.2663296461105347e-01</leafValues></_>
        <_>
          <internalNodes>
            0 -1 26 1.1417221277952194e-02</internalNodes>
          <leafValues>
            -8.2939034700393677e-01 3.0954921245574951e-01</leafValues></_>
        <_>
          <internalNodes>
            0 -1 39 5.8415159583091736e-03</internalNodes>
          <leafValues>
            -8.2981014251708984e-01 2.7740144729614258e-01</leafValues></_>
        <_>
          <internalNodes>
            0 -1 17 3.5251174122095108e-03</internalNodes>
          <leafValues>
            -6.7154449224472046e-01 3.2740083336830139e-01</leafValues></_></weakClassifiers></_>
    <!-- stage 4 -->
    <_>
      <maxWeakCount>7</maxWeakCount>
      <stageThreshold>-1.0116282701492310e+00</stageThreshold>
      <weakClassifiers>
        <_>
          <internalNodes>
            0 -1 41 7.0073530077934265e-02</internalNodes>
          <leafValues>
            -5.6295222043991089e-01 6.8049329519271851e-01</leafValues></_>
        <_>
          <internalNodes>
            0 -1 12 -1.2803509831428528e-02</internalNodes>
          <leafValues>
            5.4290056228637695e-01 -6.0118842124938965e-01</leafValues></_>
        <_>
          <internalNodes>
            0 -1 14 5.5072113871574402e-02</internalNodes>
          <leafValues>
            -6.3417661190032959e-01 3.7006840109825134e-01</leafValues></_>
        <_>
          <internalNodes>
            0 -1 29 3.1946268863976002e-03</internalNodes>
          <leafValues>
            -8.3507436513900757e-01 3.2216939330101013e-01</leafValues></_>
        <_>
          <internalNodes>
            0 -1 5 9.9058952182531357e-03</internalNodes>
          <leafValues>
            -3.9509543776512146e-01 6.5173506736755371e-01</leafValues></_>
        <_>
          <internalNodes>
            0 -1 24 7.1739824488759041e-04</internalNodes>
          <leafValues>
            -4.1624197363853455e-01 5.3181487321853638e-01</leafValues></_>
        <_>
          <internalNodes>
            0 -1 49 2.4759989231824875e-02</internalNodes>
          <leafValues>
            -5.3235572576522827e-01 3.8202524185180664e-01</leafValues></_></weakClassifiers></_>
    <!-- stage 5 -->
    <_>
      <maxWeakCount>9</maxWeakCount>
      <stageThreshold>-1.1629694700241089e+00</stageThreshold>
      <weakClassifiers>
        <_>
          <internalNodes>
            0 -1 40 8.3094120025634766e-02</internalNodes>
          <leafValues>
            -3.6281180381774902e-01 7.1876960992813110e-01</leafValues></_>
        <_>
          <internalNodes>
            0 -1 3 1.6564829275012016e-02</internalNodes>
          <leafValues>
            -5.5243951082229614e-01 5.0962638854980469e-01</leafValues></_>
        <_>
          <internalNodes>
            0 -1 18 7.2678560391068459e-03</internalNodes>
          <leafValues>
            -5.8421343564987183e-01 3.9805349707603455e-01</leafValues></_>
        <_>
          <internalNodes>
            0 -1 9 1.2259030342102051e-01</internalNodes>
          <leafValues>
            -7.5184190273284912e-01 2.9577794671058655e-01</leafValues></_>
        <_>
          <internalNodes>
            0 -1 45 6.9037429057061672e-03</internalNodes>
          <leafValues>
            -7.4122750759124756e-01 2.6068148016929626e-01</leafValues></_>
        <_>
          <internalNodes>
            0 -1 38 4.0256436914205551e-02</internalNodes>
          <leafValues>
            -6.7075699567794800e-01 3.1600108742713928e-01</leafValues></_>
        <_>
          <internalNodes>
            0 -1 28 -3.5812347196042538e-03</internalNodes>
          <leafValues>
            4.8468375205993652e-01 -4.5311215519905090e-01</leafValues></_>
        <_>
          <internalNodes>
            0 -1 2 2.4289442226290703e-03</internalNodes>
          <leafValues>
            -3.3040848374366760e-01 6.4849990606307983e-01</leafValues></_>
        <_>
          <internalNodes>
            0 -1 47 -4.2122425511479378e-03</internalNodes>
          <leafValues>
            -8.6727976799011230e-01 2.7770692110061646e-01</leafValues></_></weakClassifiers></_>
    <!-- stage 6 -->
    <_>
      <maxWeakCount>9</maxWeakCount>
      <stageThreshold>-1.1045862436294556e+00</stageThreshold>
      <weakClassifiers>
        <_>
          <internalNodes>
            0 -1 35 -6.2209051102399826e-02</internalNodes>
          <leafValues>
            7.2807615995407104e-01 -2.4501992762088776e-01</leafValues></_>
        <_>
          <internalNodes>
            0 -1 48 6.1160074546933174e-03</internalNodes>
          <leafValues>
            3.1686159968376160e-01 -8.9409297704696655e-01</leafValues></_>
        <_>
          <internalNodes>
            0 -1 11 -4.7716729342937469e-02</internalNodes>
          <leafValues>
            4.5107433199882507e-01 -4.8545032739639282e-01</leafValues></_>
        <_>
          <internalNodes>
            0 -1 15 3.6342300474643707e-02</internalNodes>
          <leafValues>
            -7.2855079174041748e-01 2.6890620589256287e-01</leafValues></_>
        <_>
          <internalNodes>
            0 -1 4 2.2151574492454529e-02</internalNodes>
          <leafValues>
            -4.1634830832481384e-01 5.3498989343643188e-01</leafValues></_>
        <_>
          <internalNodes>
            0 -1 50 -5.1462780684232712e-03</internalNodes>
          <leafValues>
            4.2159825563430786e-01 -4.5908966660499573e-01</leafValues></_>
        <_>
          <internalNodes>
            0 -1 22 5.4672765545547009e-03</internalNodes>
          <leafValues>
            -5.2419024705886841e-01 3.3587542176246643e-01</leafValues></_>
        <_>
          <internalNodes>
            0 -1 33 -1.8649550620466471e-03</internalNodes>
          <leafValues>
            2.7684593200683594e-01 -5.8723229169845581e-01</leafValues></_>
        <_>
          <internalNodes>
            0 -1 25 9.5777530223131180e-03</internalNodes>
          <leafValues>
            -7.3366606235504150e-01 2.2383075952529907e-01</leafValues></_></weakClassifiers></_>
    <!-- stage 7 -->
    <_>
      <maxWeakCount>7</maxWeakCount>
      <stageThreshold>-6.5419793128967285e-01</stageThreshold>
      <weakClassifiers>
        <_>
          <internalNodes>
            0 -1 43 -1.5333820134401321e-02</internalNodes>
          <leafValues>
            6.0618996620178223e-01 -5.1747089624404907e-01</leafValues></_>
        <_>
          <internalNodes>
            0 -1 31 7.9805124551057816e-03</internalNodes>
          <leafValues>
            -5.8857285976409912e-01 3.9218240976333618e-01</leafValues></_>
        <_>
          <internalNodes>
            0 -1 34 -2.9154024086892605e-03</internalNodes>
          <leafValues>
            3.9697432518005371e-01 -5.7302439212799072e-01</leafValues></_>
        <_>
          <internalNodes>
            0 -1 6 1.4658628031611443e-02</internalNodes>
          <leafValues>
            -3.0111190676689148e-01 6.8614393472671509e-01</leafValues></_>
        <_>
          <internalNodes>
            0 -1 0 5.6544686667621136e-03</internalNodes>
          <leafValues>
            -3.6948785185813904e-01 6.5432018041610718e-01</leafValues></_>
        <_>
          <internalNodes>
            0 -1 7 -1.1675570160150528e-02</internalNodes>
          <leafValues>
            -8.4406346082687378e-01 2.9080203175544739e-01</leafValues></_>
        <_>
          <internalNodes>
            0 -1 44 3.4605800174176693e-03</internalNodes>
          <leafValues>
            -4.5650604367256165e-01 4.3511727452278137e-01</leafValues></_></weakClassifiers></_></stages>
  <features>
    <_>
      <rects>
        <_>
          0 5 2 4 -1.</_>
        <_>
          1 5 1 4 2.</_></rects>
      <tilted>0</tilted></_>
    <_>
      <rects>
        <_>
          1 0 12 4 -1.</_>
        <_>
          1 2 12 2 2.</_></rects>
      <tilted>0</tilted></_>
    <_>
      <rects>
        <_>
          1 7 3 1 -1.</_>
        <_>
          2 7 1 1 3.</_></rects>
      <tilted>0</tilted></_>
    <_>
      <rects>
        <_>
          1 13 8 5 -1.</_>
        <_>
          5 13 4 5 2.</_></rects>
      <tilted>0</tilted></_>
    <_>
      <rects>
        <_>
          2 0 9 4 -1.</_>
        <_>
          2 2 9 2 2.</_></rects>
      <tilted>0</tilted></_>
    <_>
      <rects>
        <_>
          2 1 10 2 -1.</_>
        <_>
          2 2 10 1 2.</_></rects>
      <tilted>0</tilted></_>
    <_>
      <rects>
        <_>
          2 1 10 3 -1.</_>
        <_>
          2 2 10 1 3.</_></rects>
      <tilted>0</tilted></_>
    <_>
      <rects>
        <_>
          3 14 9 2 -1.</_>
        <_>
          6 14 3 2 3.</_></rects>
      <tilted>0</tilted></_>
    <_>
      <rects>
        <_>
          3 17 8 2 -1.</_>
        <_>
          3 18 8 1 2.</_></rects>
      <tilted>0</tilted></_>
    <_>
      <rects>
        <_>
          4 4 14 12 -1.</_>
        <_>
          11 4 7 12 2.</_></rects>
      <tilted>0</tilted></_>
    <_>
      <rects>
        <_>
          4 6 10 2 -1.</_>
        <_>
          9 6 5 2 2.</_></rects>
      <tilted>0</tilted></_>
    <_>
      <rects>
        <_>
          4 16 11 4 -1.</_>
        <_>
          4 18 11 2 2.</_></rects>
      <tilted>0</tilted></_>
    <_>
      <rects>
        <_>
          4 17 14 2 -1.</_>
        <_>
          4 18 14 1 2.</_></rects>
      <tilted>0</tilted></_>
    <_>
      <rects>
        <_>
          5 3 12 6 -1.</_>
        <_>
          5 3 6 3 2.</_>
        <_>
          11 6 6 3 2.</_></rects>
      <tilted>0</tilted></_>
    <_>
      <rects>
        <_>
          5 4 15 5 -1.</_>
        <_>
          10 4 5 5 3.</_></rects>
      <tilted>0</tilted></_>
    <_>
      <rects>
        <_>
          5 6 15 3 -1.</_>
        <_>
          10 6 5 3 3.</_></rects>
      <tilted>0</tilted></_>
    <_>
      <rects>
        <_>
          5 8 9 10 -1.</_>
        <_>
          5 13 9 5 2.</_></rects>
      <tilted>0</tilted></_>
    <_>
      <rects>
        <_>
          5 9 2 6 -1.</_>
        <_>
          5 12 2 3 2.</_></rects>
      <tilted>0</tilted></_>
    <_>
      <rects>
        <_>
          5 13 6 4 -1.</_>
        <_>
          5 13 3 2 2.</_>
        <_>
          8 15 3 2 2.</_></rects>
      <tilted>0</tilted></_>
    <_>
      <rects>
        <_>
          5 16 11 4 -1.</_>
        <_>
          5 18 11 2 2.</_></rects>
      <tilted>0</tilted></_>
    <_>
      <rects>
        <_>
          5 16 14 4 -1.</_>
        <_>
          5 18 14 2 2.</_></rects>
      <tilted>0</tilted></_>
    <_>
      <rects>
        <_>
          6 7 12 7 -1.</_>
        <_>
          12 7 6 7 2.</_></rects>
      <tilted>0</tilted></_>
    <_>
      <rects>
        <_>
          6 9 2 6 -1.</_>
        <_>
          6 12 2 3 2.</_></rects>
      <tilted>0</tilted></_>
    <_>
      <rects>
        <_>
          6 16 9 4 -1.</_>
        <_>
          6 18 9 2 2.</_></rects>
      <tilted>0</tilted></_>
    <_>
      <rects>
        <_>
          7 10 2 1 -1.</_>
        <_>
          8 10 1 1 2.</_></rects>
      <tilted>0</tilted></_>
    <_>
      <rects>
        <_>
          7 13 10 1 -1.</_>
        <_>
          12 13 5 1 2.</_></rects>
      <tilted>0</tilted></_>
    <_>
      <rects>
        <_>
          7 13 10 2 -1.</_>
        <_>
          12 13 5 2 2.</_></rects>
      <tilted>0</tilted></_>
    <_>
      <rects>
        <_>
          8 2 10 12 -1.</_>
        <_>
          8 2 5 6 2.</_>
        <_>
          13 8 5 6 2.</_></rects>
      <tilted>0</tilted></_>
    <_>
      <rects>
        <_>
          8 5 1 6 -1.</_>
        <_>
          8 7 1 2 3.</_></rects>
      <tilted>0</tilted></_>
    <_>
      <rects>
        <_>
          8 13 3 4 -1.</_>
        <_>
          8 15 3 2 2.</_></rects>
      <tilted>0</tilted></_>
    <_>
      <rects>
        <_>
          8 13 6 6 -1.</_>
        <_>
          8 15 6 2 3.</_></rects>
      <tilted>0</tilted></_>
    <_>
      <rects>
        <_>
          9 1 2 9 -1.</_>
        <_>
          9 4 2 3 3.</_></rects>
      <tilted>0</tilted></_>
    <_>
      <rects>
        <_>
          9 9 10 10 -1.</_>
        <_>
          9 9 5 5 2.</_>
        <_>
          14 14 5 5 2.</_></rects>
      <tilted>0</tilted></_>
    <_>
      <rects>
        <_>
          9 16 4 2 -1.</_>
        <_>
          9 17 4 1 2.</_></rects>
      <tilted>0</tilted></_>
    <_>
      <rects>
        <_>
          9 17 3 2 -1.</_>
        <_>
          9 18 3 1 2.</_></rects>
      <tilted>0</tilted></_>
    <_>
      <rects>
        <_>
          10 5 4 12 -1.</_>
        <_>
          10 9 4 4 3.</_></rects>
      <tilted>0</tilted></_>
    <_>
      <rects>
        <_>
          10 13 9 3 -1.</_>
        <_>
          13 13 3 3 3.</_></rects>
      <tilted>0</tilted></_>
    <_>
      <rects>
        <_>
          11 1 3 12 -1.</_>
        <_>
          11 5 3 4 3.</_></rects>
      <tilted>0</tilted></_>
    <_>
      <rects>
        <_>
          11 1 6 12 -1.</_>
        <_>
          11 5 6 4 3.</_></rects>
      <tilted>0</tilted></_>
    <_>
      <rects>
        <_>
          11 2 3 6 -1.</_>
        <_>
          11 5 3 3 2.</_></rects>
      <tilted>0</tilted></_>
    <_>
      <rects>
        <_>
          11 8 9 6 -1.</_>
        <_>
          14 8 3 6 3.</_></rects>
      <tilted>0</tilted></_>
    <_>
      <rects>
        <_>
          11 8 9 7 -1.</_>
        <_>
          14 8 3 7 3.</_></rects>
      <tilted>0</tilted></_>
    <_>
      <rects>
        <_>
          11 9 9 5 -1.</_>
        <_>
          14 9 3 5 3.</_></rects>
      <tilted>0</tilted></_>
    <_>
      <rects>
        <_>
          12 9 4 10 -1.</_>
        <_>
          12 9 2 5 2.</_>
        <_>
          14 14 2 5 2.</_></rects>
      <tilted>0</tilted></_>
    <_>
      <rects>
        <_>
          13 3 4 2 -1.</_>
        <_>
          13 4 4 1 2.</_></rects>
      <tilted>0</tilted></_>
    <_>
      <rects>
        <_>
          13 10 3 9 -1.</_>
        <_>
          13 13 3 3 3.</_></rects>
      <tilted>0</tilted></_>
    <_>
      <rects>
        <_>
          14 2 4 18 -1.</_>
        <_>
          14 8 4 6 3.</_></rects>
      <tilted>0</tilted></_>
    <_>
      <rects>
        <_>
          14 5 2 10 -1.</_>
        <_>
          14 10 2 5 2.</_></rects>
      <tilted>0</tilted></_>
    <_>
      <rects>
        <_>
          16 7 1 8 -1.</_>
        <_>
          16 11 1 4 2.</_></rects>
      <tilted>0</tilted></_>
    <_>
      <rects>
        <_>
          17 2 2 18 -1.</_>
        <_>
          17 8 2 6 3.</_></rects>
      <tilted>0</tilted></_>
    <_>
      <rects>
        <_>
          18 6 2 8 -1.</_>
        <_>
          19 6 1 8 2.</_></rects>
      <tilted>0</tilted></_></features></cascade>
</opencv_storage>
